<?xml version="1.0"?>
<opencv_storage>
<cascade>
  <stageType>BOOST</stageType>
  <featureType>LBP</featureType>
  <height>24</height>
  <width>24</width>
  <stageParams>
    <boostType>GAB</boostType>
    <minHitRate>9.9800002574920654e-01</minHitRate>
    <maxFalseAlarm>4.0000000596046448e-01</maxFalseAlarm>
    <weightTrimRate>9.4999999999999996e-01</weightTrimRate>
    <maxDepth>1</maxDepth>
    <maxWeakCount>100</maxWeakCount></stageParams>
  <featureParams>
    <maxCatCount>256</maxCatCount>
    <featSize>1</featSize></featureParams>
  <stageNum>19</stageNum>
  <stages>
    <!-- stage 0 -->
    <_>
      <maxWeakCount>25</maxWeakCount>
      <stageThreshold>-2.3245370388031006e+00</stageThreshold>
      <weakClassifiers>
        <_>
          <internalNodes>
            0 -1 233 290742263 -755713 -15171585 -3113990 2102409215
            -771087 -67993605 -13614288</internalNodes>
          <leafValues>
            -7.3871660232543945e-01 4.7238998115062714e-02</leafValues></_>
        <_>
          <internalNodes>
            0 -1 408 -3342388 -36372492 -3276852 -34804744 -591331332
            -51077412 -3342424 -125783424</internalNodes>
          <leafValues>
            -6.3314568996429443e-01 2.4926866590976715e-01</leafValues></_>
        <_>
          <internalNodes>
            0 -1 728 889198260 -170383112 -37675012 -546504484
            -1218398792 -1309624844 -1205813590 -1199570944</internalNodes>
          <leafValues>
            -3.8454020023345947e-01 3.1433463096618652e-01</leafValues></_>
        <_>
          <internalNodes>
            0 -1 1127 -263815168 1346547232 245893152 -802511834
            -1069154304 9476 -704347008 -257178998</internalNodes>
          <leafValues>
            -3.2334467768669128e-01 3.4319028258323669e-01</leafValues></_>
        <_>
          <internalNodes>
            0 -1 738 -795075376 -134999115 -552329731 -544656852
            -1093625348 -1125106732 -1126131222 -1432354680</internalNodes>
          <leafValues>
            -2.5939467549324036e-01 3.8098919391632080e-01</leafValues></_>
        <_>
          <internalNodes>
            0 -1 341 -615848798 -1058306360 546177536 -202668544
            -1068391292 201600588 -764956032 -202398070</internalNodes>
          <leafValues>
            -1.6408745944499969e-01 4.4602125883102417e-01</leafValues></_>
        <_>
          <internalNodes>
            0 -1 149 -135271390 -584415229 1857070624 -1375543166
            1702110528 612399092 1697911808 -513546750</internalNodes>
          <leafValues>
            -2.0522983372211456e-01 3.6637455224990845e-01</leafValues></_>
        <_>
          <internalNodes>
            0 -1 1148 -35658624 -774536128 -1461967352 -261714814
            -691033464 536885108 -897804598 -791697526</internalNodes>
          <leafValues>
            -1.9676466286182404e-01 3.6468085646629333e-01</leafValues></_>
        <_>
          <internalNodes>
            0 -1 650 301299197 343531511 -34734115 -1074172427
            -1129725956 -1191197447 -1124225863 149656744</internalNodes>
          <leafValues>
            -1.9408161938190460e-01 3.5391995310783386e-01</leafValues></_>
        <_>
          <internalNodes>
            0 -1 197 -1064041732 -172958985 2115952543 -748371326
            -163563619 -34449499 -76156933 -1088420348</internalNodes>
          <leafValues>
            -2.0180332660675049e-01 3.0777657032012939e-01</leafValues></_>
        <_>
          <internalNodes>
            0 -1 262 -370940254 -305140050 85819392 -775428965
            1684525706 1075881862 -2065456474 -135284850</internalNodes>
          <leafValues>
            -1.5597569942474365e-01 4.0537267923355103e-01</leafValues></_>
        <_>
          <internalNodes>
            0 -1 1129 -798916608 -2103424477 -1297842016 -210786138
            1093984256 73688068 -179652918 -205280469</internalNodes>
          <leafValues>
            -1.8974335491657257e-01 2.9645434021949768e-01</leafValues></_>
        <_>
          <internalNodes>
            0 -1 213 2037790710 2069777654 1928769074 -76411598
            2119446513 2133940035 2064787387 922910578</internalNodes>
          <leafValues>
            -3.0179899930953979e-01 1.8883247673511505e-01</leafValues></_>
        <_>
          <internalNodes>
            0 -1 33 1431613412 1710554533 -138883842 -738395859 -9117698
            1976842357 1727524522 1095306</internalNodes>
          <leafValues>
            -3.0801394581794739e-01 1.8411639332771301e-01</leafValues></_>
        <_>
          <internalNodes>
            0 -1 1171 -347428960 -1070753088 545956076 -926514488
            253884307 1082314690 -1255697216 -2130214262</internalNodes>
          <leafValues>
            -2.2860814630985260e-01 2.3907050490379333e-01</leafValues></_>
        <_>
          <internalNodes>
            0 -1 504 1432792916 1425551321 2011641733 -37917933
            929338356 -1141863262 -1142412052 -1474557248</internalNodes>
          <leafValues>
            -1.9587045907974243e-01 2.6628077030181885e-01</leafValues></_>
        <_>
          <internalNodes>
            0 -1 1005 1012325877 150857687 1073610431 -1376265473
            -1073744711 -2010281027 -1916873476 217700605</internalNodes>
          <leafValues>
            -2.2957165539264679e-01 2.3285020887851715e-01</leafValues></_>
        <_>
          <internalNodes>
            0 -1 53 -106825338 -997208698 447527458 -236476696
            -869816942 744509792 1659038880 -246945918</internalNodes>
          <leafValues>
            -1.7758932709693909e-01 3.1633195281028748e-01</leafValues></_>
        <_>
          <internalNodes>
            0 -1 39 -52241194 -1847555950 -1889260096 -538642552
            1155857140 -1079574575 -18765168 -775438334</internalNodes>
          <leafValues>
            -2.0043525099754333e-01 2.6412963867187500e-01</leafValues></_>
        <_>
          <internalNodes>
            0 -1 610 76560092 815044765 2144907229 -1076613353
            1961898997 -657417 -61589591 953690674</internalNodes>
          <leafValues>
            -2.2020913660526276e-01 2.2307622432708740e-01</leafValues></_>
        <_>
          <internalNodes>
            0 -1 1162 -210787422 -1270288892 1000476492 -308237712
            -185488730 1019258532 -42671840 -1060379518</internalNodes>
          <leafValues>
            -1.7021363973617554e-01 2.9030743241310120e-01</leafValues></_>
        <_>
          <internalNodes>
            0 -1 379 -153580364 -536877138 13356602 2019635471
            -457439147 1313101413 -438121914 -1213021506</internalNodes>
          <leafValues>
            -1.9470329582691193e-01 2.4373860657215118e-01</leafValues></_>
        <_>
          <internalNodes>
            0 -1 731 912793556 -590078211 -141967365 -45223937
            -641671216 -789268996 -35906565 -1648880024</internalNodes>
          <leafValues>
            -1.8663269281387329e-01 2.4994015693664551e-01</leafValues></_>
        <_>
          <internalNodes>
            0 -1 230 -446729097 -547799183 -1208197191 -1216731153
            -543225054 1551335204 1583498075 925007667</internalNodes>
          <leafValues>
            -2.3744320869445801e-01 2.0080168545246124e-01</leafValues></_>
        <_>
          <internalNodes>
            0 -1 1087 -146635580 1167423115 946875946 -247749394
            -749160564 1829142225 -1916388150 -473481270</internalNodes>
          <leafValues>
            -1.6314776241779327e-01 2.9534143209457397e-01</leafValues></_></weakClassifiers></_>
    <!-- stage 1 -->
    <_>
      <maxWeakCount>33</maxWeakCount>
      <stageThreshold>-2.1864838600158691e+00</stageThreshold>
      <weakClassifiers>
        <_>
          <internalNodes>
            0 -1 735 903626237 -165891 1073692671 -9217 -1141325825
            -222280 -1073889281 -1077410648</internalNodes>
          <leafValues>
            -7.1562290191650391e-01 8.8809944689273834e-02</leafValues></_>
        <_>
          <internalNodes>
            0 -1 539 -10682372 -10682884 -12713987 -2302500 -2228228
            -215300 -268637188 -1131632472</internalNodes>
          <leafValues>
            -5.6160694360733032e-01 1.8683525919914246e-01</leafValues></_>
        <_>
          <internalNodes>
            0 -1 701 144 -776723724 497303517 -571930791 -1376764164
            -1160761452 -1092337736 -2013263872</internalNodes>
          <leafValues>
            -3.6618787050247192e-01 2.9642799496650696e-01</leafValues></_>
        <_>
          <internalNodes>
            0 -1 729 364131796 -35849004 1065115645 -1073825028
            -1697071176 -1107509292 1071389932 142607488</internalNodes>
          <leafValues>
            -4.6197772026062012e-01 2.0679485797882080e-01</leafValues></_>
        <_>
          <internalNodes>
            0 -1 518 67112592 -638277827 526917565 1062735300 547636468
            -611295240 -107693128 -1415315424</internalNodes>
          <leafValues>
            -2.4309110641479492e-01 2.8647893667221069e-01</leafValues></_>
        <_>
          <internalNodes>
            0 -1 32 -203642948 1911862992 -140658019 2141335424
            1324685808 344221168 1845247180 4467456</internalNodes>
          <leafValues>
            -3.6888858675956726e-01 1.6271327435970306e-01</leafValues></_>
        <_>
          <internalNodes>
            0 -1 90 -1 -714831948 -1355104644 -39686352 -197787740
            -17252362 -110043616 -985422334</internalNodes>
          <leafValues>
            -1.4357353746891022e-01 3.8849341869354248e-01</leafValues></_>
        <_>
          <internalNodes>
            0 -1 232 1987213296 -36407950 -34833029 -1652937038
            2066816883 -30390923 -145261573 2032300819</internalNodes>
          <leafValues>
            -2.4782782793045044e-01 2.3185883462429047e-01</leafValues></_>
        <_>
          <internalNodes>
            0 -1 1175 -2141286194 11437800 773163642 149463516 182903180
            134687349 199205084 -2131784292</internalNodes>
          <leafValues>
            -3.0162400007247925e-01 1.8089735507965088e-01</leafValues></_>
        <_>
          <internalNodes>
            0 -1 334 -1062565246 -785742976 131540704 -779132416
            1195413384 9878976 -2129538430 -796421600</internalNodes>
          <leafValues>
            -2.2997117042541504e-01 2.3846195638179779e-01</leafValues></_>
        <_>
          <internalNodes>
            0 -1 620 -1059808428 -583745808 -1107612295 -46521826
            -281949960 -1309353284 -1112463160 -1447558656</internalNodes>
          <leafValues>
            -2.1119308471679688e-01 2.5688835978507996e-01</leafValues></_>
        <_>
          <internalNodes>
            0 -1 1077 -38289636 1379319572 1986854712 -181629108
            -1001050572 -118821452 -1075447044 -666572082</internalNodes>
          <leafValues>
            -2.2676782310009003e-01 2.0534765720367432e-01</leafValues></_>
        <_>
          <internalNodes>
            0 -1 555 273984688 312538621 -34596963 1027443078 1064381681
            -109225100 -975714 -1411373824</internalNodes>
          <leafValues>
            -1.9987732172012329e-01 2.2761654853820801e-01</leafValues></_>
        <_>
          <internalNodes>
            0 -1 1152 -159989588 -264391000 -1561172960 -252205014
            1970447242 675569668 -420699958 -202912118</internalNodes>
          <leafValues>
            -1.5230238437652588e-01 2.9970827698707581e-01</leafValues></_>
        <_>
          <internalNodes>
            0 -1 236 309916272 809563390 899010538 986442498 540491220
            1423277766 -1252577860 542453792</internalNodes>
          <leafValues>
            -3.5650908946990967e-01 1.2806393206119537e-01</leafValues></_>
        <_>
          <internalNodes>
            0 -1 183 -278529 -78455065 -285335814 2099294202 -50188362
            -30375965 -1074389314 1897981875</internalNodes>
          <leafValues>
            -1.8081663548946381e-01 2.4494060873985291e-01</leafValues></_>
        <_>
          <internalNodes>
            0 -1 837 -136596267 -209777049 871809023 -1649471649
            -1086672907 -1148154698 -1183012166 -1465368790</internalNodes>
          <leafValues>
            -1.3261999189853668e-01 3.2957366108894348e-01</leafValues></_>
        <_>
          <internalNodes>
            0 -1 1111 -71260800 -563816772 -882092616 -1729328 392215996
            1164246885 -1212509763 -773388280</internalNodes>
          <leafValues>
            -1.8225088715553284e-01 2.2159633040428162e-01</leafValues></_>
        <_>
          <internalNodes>
            0 -1 112 1086369456 -1762077009 -1880342553 425896866
            2002075093 -51234850 -1078624310 720704518</internalNodes>
          <leafValues>
            -1.9751438498497009e-01 2.0046362280845642e-01</leafValues></_>
        <_>
          <internalNodes>
            0 -1 116 -792288058 -87102816 1685127168 -250942574
            -903818759 69619012 -1524619584 -211310706</internalNodes>
          <leafValues>
            -1.5951845049858093e-01 2.4858506023883820e-01</leafValues></_>
        <_>
          <internalNodes>
            0 -1 892 734345201 473373687 -1112576004 425061624 -47397772
            -1191316867 -1191187240 15056084</internalNodes>
          <leafValues>
            -2.6905322074890137e-01 1.5595516562461853e-01</leafValues></_>
        <_>
          <internalNodes>
            0 -1 684 1750383408 1023210239 -671392210 522775032
            1323146673 -1183478284 1877155368 749275170</internalNodes>
          <leafValues>
            -2.3988118767738342e-01 1.6533918678760529e-01</leafValues></_>
        <_>
          <internalNodes>
            0 -1 656 -165371440 -537610576 -1141166096 -706953312
            -1902002460 -1918342656 -1518860306 -1852898152</internalNodes>
          <leafValues>
            -1.7613303661346436e-01 2.2343219816684723e-01</leafValues></_>
        <_>
          <internalNodes>
            0 -1 701 -713785019 273543971 -861427920 615311238
            1844116959 -170087208 -51401685 937240193</internalNodes>
          <leafValues>
            -2.0139704644680023e-01 1.9127014279365540e-01</leafValues></_>
        <_>
          <internalNodes>
            0 -1 568 -856392711 -124469897 1342174173 -538390642
            -833330704 -50528258 2146508554 -1414782026</internalNodes>
          <leafValues>
            -1.5425871312618256e-01 2.5488477945327759e-01</leafValues></_>
        <_>
          <internalNodes>
            0 -1 142 -135299010 1849580576 -1526915588 -1296905414
            -924461136 1039158240 -552297370 -798648446</internalNodes>
          <leafValues>
            -1.6970816254615784e-01 2.3395307362079620e-01</leafValues></_>
        <_>
          <internalNodes>
            0 -1 1193 -629410622 -264531114 519709848 -1730106716
            -1077584960 -1969195771 -3154726 -254548849</internalNodes>
          <leafValues>
            -1.4444261789321899e-01 2.6930242776870728e-01</leafValues></_>
        <_>
          <internalNodes>
            0 -1 648 1013977297 335313404 449613534 354557404
            -1388695555 -35883012 517758120 724319512</internalNodes>
          <leafValues>
            -2.6745557785034180e-01 1.4982122182846069e-01</leafValues></_>
        <_>
          <internalNodes>
            0 -1 655 284501012 274476919 -835908164 653043239 -697360412
            972111799 -101376852 620013220</internalNodes>
          <leafValues>
            -3.3270671963691711e-01 1.1873997002840042e-01</leafValues></_>
        <_>
          <internalNodes>
            0 -1 267 -747063646 -1004499264 -335590248 1902589444
            1475838624 1614044644 1401927418 -1313889074</internalNodes>
          <leafValues>
            -1.6371521353721619e-01 2.3909592628479004e-01</leafValues></_>
        <_>
          <internalNodes>
            0 -1 759 -82451648 959751423 -321803084 -826999174
            1986124277 972548733 -33685828 743561280</internalNodes>
          <leafValues>
            -2.9942002892494202e-01 1.3600219786167145e-01</leafValues></_>
        <_>
          <internalNodes>
            0 -1 54 -701782382 -1786600032 737557936 -572934212
            -817590290 1827794342 1852776116 -800864062</internalNodes>
          <leafValues>
            -1.5861466526985168e-01 2.4455125629901886e-01</leafValues></_>
        <_>
          <internalNodes>
            0 -1 406 975178516 1023064059 -807523396 801160672
            1140889032 -17170633 -67322428 203425796</internalNodes>
          <leafValues>
            -4.1787675023078918e-01 9.1908209025859833e-02</leafValues></_></weakClassifiers></_>
    <!-- stage 2 -->
    <_>
      <maxWeakCount>46</maxWeakCount>
      <stageThreshold>-2.0974242687225342e+00</stageThreshold>
      <weakClassifiers>
        <_>
          <internalNodes>
            0 -1 233 1976991743 -174081 2138472447 -953349 -69910785
            -2737189 2079489023 -9275598</internalNodes>
          <leafValues>
            -6.8528610467910767e-01 -9.9724262952804565e-02</leafValues></_>
        <_>
          <internalNodes>
            0 -1 860 494933501 -1644427535 1039876095 1027356376
            -1093091591 -1091031119 447225080 135790600</internalNodes>
          <leafValues>
            -4.9907600879669189e-01 1.0858117043972015e-01</leafValues></_>
        <_>
          <internalNodes>
            0 -1 23 -67305986 -34541316 -101646851 -40861768 -829633368
            -559376920 -119472918 1140867200</internalNodes>
          <leafValues>
            -4.7162711620330811e-01 1.6648708283901215e-01</leafValues></_>
        <_>
          <internalNodes>
            0 -1 793 -738192144 -69721732 935116285 -1791487463
            -302974020 -1073993220 -1970251590 134217728</internalNodes>
          <leafValues>
            -3.0071845650672913e-01 2.5192680954933167e-01</leafValues></_>
        <_>
          <internalNodes>
            0 -1 1225 -1427579649 -1944581164 368963295 242777332
            -1891172386 -1931809281 -1736967681 -1930441217</internalNodes>
          <leafValues>
            -2.2560384869575500e-01 2.7181610465049744e-01</leafValues></_>
        <_>
          <internalNodes>
            0 -1 692 -1058007728 -572508652 2004399609 -1611657740
            -1364662344 -1091301924 -1193767942 167772176</internalNodes>
          <leafValues>
            -3.4470942616462708e-01 1.7488394677639008e-01</leafValues></_>
        <_>
          <internalNodes>
            0 -1 538 -57896784 316157728 -1127387267 -1112687903
            -520833796 -1194006524 1685065471 264770</internalNodes>
          <leafValues>
            -2.8955358266830444e-01 1.7590950429439545e-01</leafValues></_>
        <_>
          <internalNodes>
            0 -1 231 -125936135 -8757258 -59557957 -1687153861
            -422150443 -93294477 -550355201 -80514205</internalNodes>
          <leafValues>
            -1.5765538811683655e-01 3.1297385692596436e-01</leafValues></_>
        <_>
          <internalNodes>
            0 -1 575 1431867732 -719458627 416822973 433434347
            -564810756 -1191248451 -1208670040 675873282</internalNodes>
          <leafValues>
            -1.7916515469551086e-01 2.4066594243049622e-01</leafValues></_>
        <_>
          <internalNodes>
            0 -1 803 -1879041936 -1215021185 -1099448834 -1846198282
            -171401475 -7488002 -1212564230 -1346895420</internalNodes>
          <leafValues>
            -2.2711971402168274e-01 1.7918673157691956e-01</leafValues></_>
        <_>
          <internalNodes>
            0 -1 223 2085671872 -782502086 1971105242 1068603622
            -436871968 -722411692 -285788226 4264578</internalNodes>
          <leafValues>
            -2.5138738751411438e-01 1.6193312406539917e-01</leafValues></_>
        <_>
          <internalNodes>
            0 -1 1076 -53087184 -552577768 -1347224772 -1180641392
            -922893156 -22123344 1020837112 -1742698853</internalNodes>
          <leafValues>
            -2.2196549177169800e-01 1.8002837896347046e-01</leafValues></_>
        <_>
          <internalNodes>
            0 -1 1003 296266237 -1074905099 1393983193 1006386389
            -1961312769 -2015585543 -1424048386 -1650963140</internalNodes>
          <leafValues>
            -2.1768692135810852e-01 1.8493741750717163e-01</leafValues></_>
        <_>
          <internalNodes>
            0 -1 471 -1943875088 -538818400 1946047989 -545292304
            -1890352918 -1947963396 565833714 -11860608</internalNodes>
          <leafValues>
            -1.6992348432540894e-01 2.3290102183818817e-01</leafValues></_>
        <_>
          <internalNodes>
            0 -1 229 -12954631 -8689482 -211599909 -1108594767
            -109035776 -28368602 406352504 -81559758</internalNodes>
          <leafValues>
            -1.6968549787998199e-01 2.2569707036018372e-01</leafValues></_>
        <_>
          <internalNodes>
            0 -1 998 -22876936 141307692 -1906365702 430694142 163490558
            -1393451544 300756368 6676599</internalNodes>
          <leafValues>
            -2.5850433111190796e-01 1.4253555238246918e-01</leafValues></_>
        <_>
          <internalNodes>
            0 -1 626 -589013771 -725846757 -756498945 366743127
            -1535990568 -1157860186 -84690470 -1965552870</internalNodes>
          <leafValues>
            -1.6320514678955078e-01 2.3386201262474060e-01</leafValues></_>
        <_>
          <internalNodes>
            0 -1 526 -134719268 -604634373 -738269186 -658866568
            -47410286 -1369301145 -1092163430 -1507189621</internalNodes>
          <leafValues>
            -1.6907651722431183e-01 2.1479628980159760e-01</leafValues></_>
        <_>
          <internalNodes>
            0 -1 960 -254800676 -738512617 -285279517 -546081964
            -1039487860 -5501412 -253968646 -1162214206</internalNodes>
          <leafValues>
            -1.6528862714767456e-01 2.2112831473350525e-01</leafValues></_>
        <_>
          <internalNodes>
            0 -1 69 -892933774 -44037662 234114033 -10115488 213927164
            -1441094148 -824327952 -82489101</internalNodes>
          <leafValues>
            -1.7863918840885162e-01 1.9973637163639069e-01</leafValues></_>
        <_>
          <internalNodes>
            0 -1 788 756571612 -68008264 -127928970 1039757052
            -1154708560 -1617117323 -1275545700 513429721</internalNodes>
          <leafValues>
            -2.5301226973533630e-01 1.3671664893627167e-01</leafValues></_>
        <_>
          <internalNodes>
            0 -1 488 -75726668 -1735879382 502579133 1036368784
            -254473564 -1191363117 969149880 538256102</internalNodes>
          <leafValues>
            -2.3710279166698456e-01 1.4935199916362762e-01</leafValues></_>
        <_>
          <internalNodes>
            0 -1 927 -696517539 -713347149 -269142305 898047611
            -93982996 -33687301 -656099142 -1474628033</internalNodes>
          <leafValues>
            -1.0863456875085831e-01 3.0890735983848572e-01</leafValues></_>
        <_>
          <internalNodes>
            0 -1 1105 -675292231 -804357072 1437445425 -317654783
            -2114089032 -559449425 -660814696 -1067737653</internalNodes>
          <leafValues>
            -1.3510684669017792e-01 2.5658285617828369e-01</leafValues></_>
        <_>
          <internalNodes>
            0 -1 338 -91560214 -884302460 209966513 -704811288
            -2107404342 -1911685166 1943265888 -773860981</internalNodes>
          <leafValues>
            -1.3532342016696930e-01 2.4922527372837067e-01</leafValues></_>
        <_>
          <internalNodes>
            0 -1 360 1077968624 -664883850 1479283985 1023471176
            -2021241347 -101564044 972500646 208740354</internalNodes>
          <leafValues>
            -2.0759047567844391e-01 1.6266733407974243e-01</leafValues></_>
        <_>
          <internalNodes>
            0 -1 456 -934871396 487112278 786807996 -2002522902
            -1840926920 -6718240 -487642432 135734818</internalNodes>
          <leafValues>
            -2.4748754501342773e-01 1.3247185945510864e-01</leafValues></_>
        <_>
          <internalNodes>
            0 -1 18 1277340802 1035469600 -1480708420 -1712319792
            1173099948 -844481606 1553221356 277169156</internalNodes>
          <leafValues>
            -3.1652387976646423e-01 1.0030277818441391e-01</leafValues></_>
        <_>
          <internalNodes>
            0 -1 647 2136479188 -1271449348 -1734534285 2104495738
            -1398788104 -1099514434 515274200 487598812</internalNodes>
          <leafValues>
            -2.8640773892402649e-01 1.1050264537334442e-01</leafValues></_>
        <_>
          <internalNodes>
            0 -1 707 1953477724 872425444 -1466548035 942997284
            -960201572 800348580 955849890 547708215</internalNodes>
          <leafValues>
            -2.5192010402679443e-01 1.2476981431245804e-01</leafValues></_>
        <_>
          <internalNodes>
            0 -1 1016 -661604588 -168204406 917944401 1071136212
            -52787495 -1431643467 1020556184 -1446378459</internalNodes>
          <leafValues>
            -1.6176275908946991e-01 1.9774278998374939e-01</leafValues></_>
        <_>
          <internalNodes>
            0 -1 574 -571320068 -15242145 -1653162043 -1248115522
            -411776866 -20046475 -1543713617 -1096153974</internalNodes>
          <leafValues>
            -1.3440066576004028e-01 2.2674416005611420e-01</leafValues></_>
        <_>
          <internalNodes>
            0 -1 1068 -1969488135 -1465218328 720111671 -1518490137
            -1343754853 -1380061784 209441012 -1998594851</internalNodes>
          <leafValues>
            -1.6603082418441772e-01 1.9031441211700439e-01</leafValues></_>
        <_>
          <internalNodes>
            0 -1 697 -1406124392 2141919075 -1352977985 -71860615
            -324290642 -322196812 -1191257171 78513280</internalNodes>
          <leafValues>
            -2.2176671028137207e-01 1.3934198021888733e-01</leafValues></_>
        <_>
          <internalNodes>
            0 -1 132 -1024937086 -256051670 -860059308 -540431670
            -1350173740 -1674476530 -380260098 12691458</internalNodes>
          <leafValues>
            -2.4023136496543884e-01 1.2735025584697723e-01</leafValues></_>
        <_>
          <internalNodes>
            0 -1 726 1544601844 -139190413 1067898475 935081278
            -1179066628 -154390364 2138217968 570565408</internalNodes>
          <leafValues>
            -2.4406796693801880e-01 1.2320854514837265e-01</leafValues></_>
        <_>
          <internalNodes>
            0 -1 184 -388461394 1637758789 -1812436492 671498547
            1467353688 -888785886 -596291360 1073955846</internalNodes>
          <leafValues>
            -2.6040506362915039e-01 1.1404226720333099e-01</leafValues></_>
        <_>
          <internalNodes>
            0 -1 431 1453331604 -1611259994 2038020816 526914700
            1490057944 -1359044609 1173779863 -1461581502</internalNodes>
          <leafValues>
            -2.2625258564949036e-01 1.3441182672977448e-01</leafValues></_>
        <_>
          <internalNodes>
            0 -1 802 -199452971 -1251181227 532415979 -1114547372
            -318853891 -884738 -1125774082 -1097988944</internalNodes>
          <leafValues>
            -1.3100035488605499e-01 2.2877310216426849e-01</leafValues></_>
        <_>
          <internalNodes>
            0 -1 1084 1003576700 -619441872 -578495043 1028817349
            683138300 -1146364544 -1970283399 134857859</internalNodes>
          <leafValues>
            -1.9345429539680481e-01 1.5253086388111115e-01</leafValues></_>
        <_>
          <internalNodes>
            0 -1 782 1490859056 -1851464195 -419582331 838692596
            -36652444 -1541551877 886513973 10875219</internalNodes>
          <leafValues>
            -2.3126225173473358e-01 1.2884394824504852e-01</leafValues></_>
        <_>
          <internalNodes>
            0 -1 812 1490565428 1353739519 -141792462 -1435456886
            1747221201 -1376612431 1911649512 -1461438944</internalNodes>
          <leafValues>
            -2.2247365117073059e-01 1.3035972416400909e-01</leafValues></_>
        <_>
          <internalNodes>
            0 -1 268 -391848208 2034005975 -806801772 -1141772636
            1681137904 -1613225039 -1460858464 13978675</internalNodes>
          <leafValues>
            -2.2664597630500793e-01 1.3132059574127197e-01</leafValues></_>
        <_>
          <internalNodes>
            0 -1 210 1576951220 2133210863 -86606423 871512030 -70101088
            -1384353247 -134333704 1946317075</internalNodes>
          <leafValues>
            -2.1738608181476593e-01 1.3340915739536285e-01</leafValues></_>
        <_>
          <internalNodes>
            0 -1 523 -84124679 -18125697 1986788561 -1754032457
            -190071906 -12724641 2086321394 -1281208428</internalNodes>
          <leafValues>
            -1.4438855648040771e-01 2.0724664628505707e-01</leafValues></_>
        <_>
          <internalNodes>
            0 -1 29 -837246432 404027838 -844257628 -505246013
            -456193866 83047733 -374592886 1386354</internalNodes>
          <leafValues>
            -2.9015147686004639e-01 1.0649777948856354e-01</leafValues></_></weakClassifiers></_>
    <!-- stage 3 -->
    <_>
      <maxWeakCount>64</maxWeakCount>
      <stageThreshold>-1.9525278806686401e+00</stageThreshold>
      <weakClassifiers>
        <_>
          <internalNodes>
            0 -1 903 1040187391 215873269 -1107312641 1040185343
            -69206017 -1392771585 -1660945153 -1929384705</internalNodes>
          <leafValues>
            -6.8633925914764404e-01 -2.3272438347339630e-01</leafValues></_>
        <_>
          <internalNodes>
            0 -1 959 -2621443 -13050716 -105055760 -796330956 -857879300
            -73532999 -871047956 -939460396</internalNodes>
          <leafValues>
            -3.9245170354843140e-01 1.1463151872158051e-01</leafValues></_>
        <_>
          <internalNodes>
            0 -1 229 -8422661 2138782623 -43581993 -67452999 2072263424
            -83484393 -97055888 -147619997</internalNodes>
          <leafValues>
            -2.1650514006614685e-01 2.6148700714111328e-01</leafValues></_>
        <_>
          <internalNodes>
            0 -1 1150 -204488126 -796131574 -2103312246 -257759582
            -696712956 1079004928 1828094602 -267917749</internalNodes>
          <leafValues>
            -1.9625827670097351e-01 2.4448546767234802e-01</leafValues></_>
        <_>
          <internalNodes>
            0 -1 789 487603696 -33677484 -1086541825 -1111738636
            -1147656200 -1107395140 -1143313668 671875088</internalNodes>
          <leafValues>
            -3.1965348124504089e-01 1.7235785722732544e-01</leafValues></_>
        <_>
          <internalNodes>
            0 -1 256 -1013976406 -1987868512 -395042768 -575144352
            -941385736 14903213 -1496849504 -438832501</internalNodes>
          <leafValues>
            -1.7970049381256104e-01 2.4910342693328857e-01</leafValues></_>
        <_>
          <internalNodes>
            0 -1 45 -842072065 -33624330 -487592585 -2517568 1093740007
            -286051627 2001033171 -270048669</internalNodes>
          <leafValues>
            -1.2229931354522705e-01 2.9758775234222412e-01</leafValues></_>
        <_>
          <internalNodes>
            0 -1 1225 -1694507009 8580092 -2047017250 -1527317251
            -1382039602 -1965298187 -1828730628 -2064919315</internalNodes>
          <leafValues>
            -1.8461185693740845e-01 2.1210138499736786e-01</leafValues></_>
        <_>
          <internalNodes>
            0 -1 106 -562368514 -9404630 -292544644 -1753184256
            -1153159532 -6225980 -123724580 1291866114</internalNodes>
          <leafValues>
            -2.8873690962791443e-01 1.2759248912334442e-01</leafValues></_>
        <_>
          <internalNodes>
            0 -1 740 -44057515 1971289883 -376479905 1069382975
            -172236808 -100667393 -286998870 -1464997058</internalNodes>
          <leafValues>
            -1.1717122048139572e-01 3.0744242668151855e-01</leafValues></_>
        <_>
          <internalNodes>
            0 -1 234 1349672951 2010824498 -885001 -984074 2087982675
            2087990612 2102426097 1936745266</internalNodes>
          <leafValues>
            -2.3567092418670654e-01 1.4738495647907257e-01</leafValues></_>
        <_>
          <internalNodes>
            0 -1 1072 -800406524 -142662299 552473168 -800217918
            -701723124 -328976864 -352932726 -770262518</internalNodes>
          <leafValues>
            -1.6384878754615784e-01 1.9021281599998474e-01</leafValues></_>
        <_>
          <internalNodes>
            0 -1 165 -220282718 -622051287 -1700337438 1893899096
            362020992 541146389 -229498204 -165413118</internalNodes>
          <leafValues>
            -1.7375525832176208e-01 1.7446583509445190e-01</leafValues></_>
        <_>
          <internalNodes>
            0 -1 725 -937363200 368881590 -1352294567 1038067021
            -1519273035 -1667383831 1042120072 143464458</internalNodes>
          <leafValues>
            -1.9174569845199585e-01 1.5907669067382813e-01</leafValues></_>
        <_>
          <internalNodes>
            0 -1 154 -87573626 1445134094 -1382765912 -329340242
            -925245456 -187417602 -36231544 541426370</internalNodes>
          <leafValues>
            -2.5408193469047546e-01 1.1173141747713089e-01</leafValues></_>
        <_>
          <internalNodes>
            0 -1 200 -289485688 -646553058 -926449766 -218990898
            -504212736 1588735046 -163513196 -251476378</internalNodes>
          <leafValues>
            -1.8003070354461670e-01 1.5144957602024078e-01</leafValues></_>
        <_>
          <internalNodes>
            0 -1 153 -960043016 -587942414 -1377881281 1033929418
            1616201093 -102473039 2145848894 1793355603</internalNodes>
          <leafValues>
            -1.7155387997627258e-01 1.5973165631294250e-01</leafValues></_>
        <_>
          <internalNodes>
            0 -1 208 1074770594 878295326 -1880723958 -478444558
            2052373408 -168263715 -102142194 146879042</internalNodes>
          <leafValues>
            -2.1246296167373657e-01 1.2510003149509430e-01</leafValues></_>
        <_>
          <internalNodes>
            0 -1 26 -335369309 -8605794 -268746909 1576054065 1845255405
            -126582842 -1947259252 814040324</internalNodes>
          <leafValues>
            -2.0186766982078552e-01 1.3253329694271088e-01</leafValues></_>
        <_>
          <internalNodes>
            0 -1 1088 -470026639 876265241 573483697 -1198080529
            -126274164 -1118277761 -837313366 -857223505</internalNodes>
          <leafValues>
            -1.1913504451513290e-01 2.2281722724437714e-01</leafValues></_>
        <_>
          <internalNodes>
            0 -1 463 1969370584 2130476478 1069101051 384444880
            -447185190 530321276 -310634564 1814037520</internalNodes>
          <leafValues>
            -2.9139539599418640e-01 9.1260500252246857e-02</leafValues></_>
        <_>
          <internalNodes>
            0 -1 1214 -47461719 -2134847168 -206503248 -531698080
            -381817612 6748426 -2086292047 -1327511893</internalNodes>
          <leafValues>
            -1.4167691767215729e-01 1.8117795884609222e-01</leafValues></_>
        <_>
          <internalNodes>
            0 -1 813 -293827052 502591108 -67163937 -29602 528072628
            -21039107 -1915277832 -1096154448</internalNodes>
          <leafValues>
            -1.6547961533069611e-01 1.5531460940837860e-01</leafValues></_>
        <_>
          <internalNodes>
            0 -1 1040 -768433632 -541479025 1929328308 -125837321
            -430549440 73266422 -1602671894 -221516126</internalNodes>
          <leafValues>
            -1.3472644984722137e-01 1.8484720587730408e-01</leafValues></_>
        <_>
          <internalNodes>
            0 -1 1223 -1107298320 -2098536218 -1082142988 435992996
            -1290341226 145209718 -160516976 -2135469908</internalNodes>
          <leafValues>
            -1.7062439024448395e-01 1.4620335400104523e-01</leafValues></_>
        <_>
          <internalNodes>
            0 -1 821 -177939084 -66576903 1072019959 -1145120260
            -345604367 -16957507 -1089309108 -1560802008</internalNodes>
          <leafValues>
            -1.8074274063110352e-01 1.3816598057746887e-01</leafValues></_>
        <_>
          <internalNodes>
            0 -1 394 1574050928 1033780852 1069166200 863255318 -969216
            326122315 913516310 2132957008</internalNodes>
          <leafValues>
            -2.7704918384552002e-01 8.7082482874393463e-02</leafValues></_>
        <_>
          <internalNodes>
            0 -1 597 -96562156 271896627 -1093915078 -1407009920
            1073286661 -1837242398 543058144 11821570</internalNodes>
          <leafValues>
            -2.9172742366790771e-01 8.2103647291660309e-02</leafValues></_>
        <_>
          <internalNodes>
            0 -1 983 -792730704 290187952 -1218265380 339606256
            1859378937 -1393531212 -417051616 134718470</internalNodes>
          <leafValues>
            -2.0207026600837708e-01 1.2143585830926895e-01</leafValues></_>
        <_>
          <internalNodes>
            0 -1 6 -2037713245 -1897223008 732362429 953153456
            -1392017473 -1468172408 1643454489 1078453632</internalNodes>
          <leafValues>
            -1.8199703097343445e-01 1.3555960357189178e-01</leafValues></_>
        <_>
          <internalNodes>
            0 -1 186 -151073025 -2482691 1607622655 -1644582225
            -327871747 -840542505 -419992657 -604539209</internalNodes>
          <leafValues>
            -8.5122227668762207e-02 2.9161918163299561e-01</leafValues></_>
        <_>
          <internalNodes>
            0 -1 943 -1113850648 535524840 -1262551312 1027594344
            -1162888231 -127959943 -2000867719 -2140815360</internalNodes>
          <leafValues>
            -1.7882031202316284e-01 1.3759891688823700e-01</leafValues></_>
        <_>
          <internalNodes>
            0 -1 833 772963188 442266996 1053308593 -1081971096
            -1098929200 -1903120395 1036524468 -2011429516</internalNodes>
          <leafValues>
            -2.2130239009857178e-01 1.0688996315002441e-01</leafValues></_>
        <_>
          <internalNodes>
            0 -1 139 -320425998 -731600969 -1074155740 -1646874846
            1633987047 -103356675 -962520691 1833001223</internalNodes>
          <leafValues>
            -1.6348020732402802e-01 1.4941091835498810e-01</leafValues></_>
        <_>
          <internalNodes>
            0 -1 84 -972771694 -1179598933 -1516483544 192458704
            288447876 2011264911 -235907064 1080059701</internalNodes>
          <leafValues>
            -2.6093846559524536e-01 9.1519981622695923e-02</leafValues></_>
        <_>
          <internalNodes>
            0 -1 104 -490808141 -1850146846 2025270704 -778279124
            45895133 -24690820 -137274135 -302782925</internalNodes>
          <leafValues>
            -1.1880823969841003e-01 2.0377258956432343e-01</leafValues></_>
        <_>
          <internalNodes>
            0 -1 911 -779871499 -593987677 519441998 -1862352979
            -134267464 1845126911 -10602090 -1111612286</internalNodes>
          <leafValues>
            -1.4617279171943665e-01 1.6206052899360657e-01</leafValues></_>
        <_>
          <internalNodes>
            0 -1 759 -15204748 993427640 -340673290 -1395333470
            2130559088 -1187160003 1431948468 1126624</internalNodes>
          <leafValues>
            -2.9140505194664001e-01 8.2144521176815033e-02</leafValues></_>
        <_>
          <internalNodes>
            0 -1 138 -790170054 -596580569 -17568491 -1141707670
            -792961066 -554291242 1871072501 1818715206</internalNodes>
          <leafValues>
            -1.7471985518932343e-01 1.3616873323917389e-01</leafValues></_>
        <_>
          <internalNodes>
            0 -1 1186 -23878966 -79745305 888146682 -84410690 -28004726
            -64735884 -121832022 -73404497</internalNodes>
          <leafValues>
            -8.6697220802307129e-02 2.7004206180572510e-01</leafValues></_>
        <_>
          <internalNodes>
            0 -1 534 408570580 955253975 -1635893428 522848760
            -1073981672 -32084139 -203410736 706755344</internalNodes>
          <leafValues>
            -2.8429159522056580e-01 8.4457926452159882e-02</leafValues></_>
        <_>
          <internalNodes>
            0 -1 219 892021602 -1609780782 1046294358 242805194
            904871337 -1430923850 2135905420 272753890</internalNodes>
          <leafValues>
            -2.5322809815406799e-01 9.5450729131698608e-02</leafValues></_>
        <_>
          <internalNodes>
            0 -1 87 -182197790 -1041584150 1421584048 -638080008
            -351313449 586680603 -152658816 -1004023629</internalNodes>
          <leafValues>
            -1.2878906726837158e-01 1.8775229156017303e-01</leafValues></_>
        <_>
          <internalNodes>
            0 -1 661 -1742690784 -1706461214 985189552 -1076096988
            533782218 1706858948 -134267979 -1146140664</internalNodes>
          <leafValues>
            -1.6372282803058624e-01 1.4371548593044281e-01</leafValues></_>
        <_>
          <internalNodes>
            0 -1 1005 814962000 -1906137913 788425882 116705481
            926874812 -1463890020 -1916799815 216912100</internalNodes>
          <leafValues>
            -2.2453927993774414e-01 1.0398735105991364e-01</leafValues></_>
        <_>
          <internalNodes>
            0 -1 1166 -24972056 -189813448 1073455156 -68837812
            -37966962 201782762 -604437360 -915157970</internalNodes>
          <leafValues>
            -1.2454340606927872e-01 1.9029718637466431e-01</leafValues></_>
        <_>
          <internalNodes>
            0 -1 1143 -1008789504 -1078592184 2021408226 -1798014220
            645671052 -1504402783 -630440306 -266163710</internalNodes>
          <leafValues>
            -1.7480614781379700e-01 1.3542512059211731e-01</leafValues></_>
        <_>
          <internalNodes>
            0 -1 536 671357488 529280433 -1208059236 623907960
            -1934355924 -295895043 -2179520 680263684</internalNodes>
          <leafValues>
            -3.6738640069961548e-01 6.3934132456779480e-02</leafValues></_>
        <_>
          <internalNodes>
            0 -1 1181 -927233852 1403675894 552058512 815315390
            1405142220 -1471790591 -404436230 -1297943998</internalNodes>
          <leafValues>
            -1.4903824031352997e-01 1.5325137972831726e-01</leafValues></_>
        <_>
          <internalNodes>
            0 -1 226 1859811062 -42209670 -117670542 -589161872
            1646024048 -615435258 -298782473 1648707379</internalNodes>
          <leafValues>
            -2.0876498520374298e-01 1.1381284147500992e-01</leafValues></_>
        <_>
          <internalNodes>
            0 -1 1045 1861702788 -1733278833 -1339388498 966781758
            -773040316 -1949270645 -144655874 -1465453749</internalNodes>
          <leafValues>
            -1.5417267382144928e-01 1.5027770400047302e-01</leafValues></_>
        <_>
          <internalNodes>
            0 -1 430 1615133364 -1801794649 -1625417083 -1363898913
            1706556422 -1081037898 -168478815 1217731495</internalNodes>
          <leafValues>
            -1.8552035093307495e-01 1.2357163429260254e-01</leafValues></_>
        <_>
          <internalNodes>
            0 -1 465 -636627984 2085994113 2143284077 -1723863297
            -103328831 -1568743986 -115892548 149137958</internalNodes>
          <leafValues>
            -1.4518803358078003e-01 1.6096436977386475e-01</leafValues></_>
        <_>
          <internalNodes>
            0 -1 737 -1002425007 -583750600 -1350734350 963918912
            -1747581042 -1276150025 -319406380 713821572</internalNodes>
          <leafValues>
            -1.9374199211597443e-01 1.1702369153499603e-01</leafValues></_>
        <_>
          <internalNodes>
            0 -1 901 106170448 433929572 1069186168 473059057 934821316
            -1631289411 918104816 506464420</internalNodes>
          <leafValues>
            -4.2442157864570618e-01 5.2179906517267227e-02</leafValues></_>
        <_>
          <internalNodes>
            0 -1 294 -469855614 1253310440 -1403518950 -765407590
            -1745564475 -1967096304 -328036678 -1285364598</internalNodes>
          <leafValues>
            -1.4485603570938110e-01 1.6539213061332703e-01</leafValues></_>
        <_>
          <internalNodes>
            0 -1 51 2103814802 872218012 1734608388 -1150829820
            1425813136 2058372981 1795104236 538104227</internalNodes>
          <leafValues>
            -2.1514433622360229e-01 1.0957687348127365e-01</leafValues></_>
        <_>
          <internalNodes>
            0 -1 173 1485204000 -669225986 -471064384 617819874
            1902392804 -575366458 -186201217 1077218882</internalNodes>
          <leafValues>
            -2.5088131427764893e-01 9.2041783034801483e-02</leafValues></_>
        <_>
          <internalNodes>
            0 -1 958 -1340607464 1043657840 1008003805 -57364872
            -927593835 -1083428876 -1797707048 268735504</internalNodes>
          <leafValues>
            -2.7423334121704102e-01 8.3820737898349762e-02</leafValues></_>
        <_>
          <internalNodes>
            0 -1 1172 -1674928128 1252450556 -1435309984 -715346580
            -1888145243 211049936 -2107005292 1421031828</internalNodes>
          <leafValues>
            -2.2068744897842407e-01 1.0560546815395355e-01</leafValues></_>
        <_>
          <internalNodes>
            0 -1 658 -6516528 217889298 -640930505 -1395798235
            -193060176 -1210769479 -271290426 -1402652105</internalNodes>
          <leafValues>
            -1.5943314135074615e-01 1.4684620499610901e-01</leafValues></_>
        <_>
          <internalNodes>
            0 -1 778 -27525092 -1688880197 -1578362517 -922956548
            1070874325 -1669541890 -1080706062 383780096</internalNodes>
          <leafValues>
            -2.6284801959991455e-01 8.7340757250785828e-02</leafValues></_>
        <_>
          <internalNodes>
            0 -1 1125 -544264608 2102110724 -1495093578 1356413797
            1800191684 2001657668 12910474 -70292918</internalNodes>
          <leafValues>
            -1.2996944785118103e-01 1.8024539947509766e-01</leafValues></_>
        <_>
          <internalNodes>
            0 -1 283 -560813906 384048785 -1379991814 -100944208
            -641837688 -1332445855 1962834686 -183315937</internalNodes>
          <leafValues>
            -1.2382695078849792e-01 1.8848970532417297e-01</leafValues></_></weakClassifiers></_>
    <!-- stage 4 -->
    <_>
      <maxWeakCount>64</maxWeakCount>
      <stageThreshold>-1.9048513174057007e+00</stageThreshold>
      <weakClassifiers>
        <_>
          <internalNodes>
            0 -1 791 1073217533 1039532031 -655361 -1107427873 -1025
            -1124883201 -67108865 -1929385729</internalNodes>
          <leafValues>
            -6.5210783481597900e-01 -2.5575473904609680e-01</leafValues></_>
        <_>
          <internalNodes>
            0 -1 341 -817125726 -2004188280 -1696656718 -169702782
            1917953190 75790500 -731388256 -235936126</internalNodes>
          <leafValues>
            -2.7541759610176086e-01 1.4622454345226288e-01</leafValues></_>
        <_>
          <internalNodes>
            0 -1 638 -180961996 341620796 1071595517 -1245856532
            -72500239 -1174606349 -1351603528 941170688</internalNodes>
          <leafValues>
            -2.2542643547058105e-01 1.8196818232536316e-01</leafValues></_>
        <_>
          <internalNodes>
            0 -1 209 -21567360 -800193017 1698349586 -255717406
            -446545904 1209100067 -9015776 -261888238</internalNodes>
          <leafValues>
            -2.1790382266044617e-01 1.8632693588733673e-01</leafValues></_>
        <_>
          <internalNodes>
            0 -1 332 746627760 -1181700098 -840904713 -1109096060
            74778545 -1192842320 -1344988209 231039492</internalNodes>
          <leafValues>
            -1.8316340446472168e-01 2.1778209507465363e-01</leafValues></_>
        <_>
          <internalNodes>
            0 -1 1127 -251689856 1892871988 788304928 -1263358362
            -196647420 810675556 -435804456 -219683230</internalNodes>
          <leafValues>
            -2.0964615046977997e-01 1.6819910705089569e-01</leafValues></_>
        <_>
          <internalNodes>
            0 -1 236 274822134 903345663 -140511362 -1077412910
            2127769532 854622196 2110852830 819229408</internalNodes>
          <leafValues>
            -2.4471561610698700e-01 1.5092523396015167e-01</leafValues></_>
        <_>
          <internalNodes>
            0 -1 98 -2145221472 2393600 -2140667216 -1651070430
            120718512 101724804 -2067398272 -490511838</internalNodes>
          <leafValues>
            -2.3203052580356598e-01 1.4255002140998840e-01</leafValues></_>
        <_>
          <internalNodes>
            0 -1 674 138413316 -1839948579 1018539966 -1091035218
            -23319052 -55299082 -1117241720 -1564989944</internalNodes>
          <leafValues>
            -2.8483104705810547e-01 1.0826414823532104e-01</leafValues></_>
        <_>
          <internalNodes>
            0 -1 85 1147636224 875341759 1839107596 -1176165663
            1726302708 540344317 2112297514 566584198</internalNodes>
          <leafValues>
            -2.8553470969200134e-01 1.1278359591960907e-01</leafValues></_>
        <_>
          <internalNodes>
            0 -1 1221 -121976158 -2106933644 478849140 -1795770752
            217572861 67500023 -424434288 -1059334445</internalNodes>
          <leafValues>
            -1.7234788835048676e-01 1.8538877367973328e-01</leafValues></_>
        <_>
          <internalNodes>
            0 -1 76 -25370790 -583467012 -2046009548 -987982 1587057084
            -288297217 -3346804 1881208450</internalNodes>
          <leafValues>
            -2.6131656765937805e-01 1.1852750182151794e-01</leafValues></_>
        <_>
          <internalNodes>
            0 -1 540 -125652448 -653771436 -1211515792 -678577296
            -1920097632 -1121142872 1786187693 -1511587836</internalNodes>
          <leafValues>
            -1.7838938534259796e-01 1.7063711583614349e-01</leafValues></_>
        <_>
          <internalNodes>
            0 -1 1165 -425549520 282916912 1022636216 -236540892
            -177891700 753200573 -1583020384 -238057844</internalNodes>
          <leafValues>
            -1.6545753180980682e-01 1.7819729447364807e-01</leafValues></_>
        <_>
          <internalNodes>
            0 -1 846 1752180500 351321075 -1112227909 -1107810512
            1691975669 -52707691 -184018760 -1465773568</internalNodes>
          <leafValues>
            -2.1565325558185577e-01 1.3910612463951111e-01</leafValues></_>
        <_>
          <internalNodes>
            0 -1 1207 -152916056 -1331501176 -336064880 -1713859924
            -1063402315 3950580 -268728184 -1595429234</internalNodes>
          <leafValues>
            -1.5659199655056000e-01 1.8638959527015686e-01</leafValues></_>
        <_>
          <internalNodes>
            0 -1 214 -1205699280 1064711542 -1295117517 265305426
            1685334001 997224437 1792435131 2120251170</internalNodes>
          <leafValues>
            -2.6886457204818726e-01 1.0960704088211060e-01</leafValues></_>
        <_>
          <internalNodes>
            0 -1 1031 -656497664 1462209793 -889571884 -747765614
            -193540408 1558722868 -21729574 -1576383998</internalNodes>
          <leafValues>
            -1.7077046632766724e-01 1.6313603520393372e-01</leafValues></_>
        <_>
          <internalNodes>
            0 -1 993 -373316000 427631865 -1922175883 501722772
            -1528091179 -1629686419 -319433476 149288068</internalNodes>
          <leafValues>
            -2.2104766964912415e-01 1.2034977227449417e-01</leafValues></_>
        <_>
          <internalNodes>
            0 -1 198 -993218788 2095765407 -604705921 -269668552
            1431335889 -53158443 -1074320358 1757880580</internalNodes>
          <leafValues>
            -1.7571650445461273e-01 1.4554435014724731e-01</leafValues></_>
        <_>
          <internalNodes>
            0 -1 1163 -168908896 1964298520 -252898892 -172972924
            -328287039 -1405818920 -105052544 -1333559136</internalNodes>
          <leafValues>
            -1.6241370141506195e-01 1.6339117288589478e-01</leafValues></_>
        <_>
          <internalNodes>
            0 -1 1153 -625498110 1381076548 -1800921036 -1326396500
            -227475328 1551121908 -38074120 -260579830</internalNodes>
          <leafValues>
            -1.5163443982601166e-01 1.6838707029819489e-01</leafValues></_>
        <_>
          <internalNodes>
            0 -1 1119 -1124172547 -1931297228 749704383 -1392627467
            33550523 -1937924889 117387484 -1996503879</internalNodes>
          <leafValues>
            -1.7446129024028778e-01 1.4736957848072052e-01</leafValues></_>
        <_>
          <internalNodes>
            0 -1 34 -293162318 -626488862 -1142679888 -671177280
            -117459480 1686437108 -1812471648 -1061710650</internalNodes>
          <leafValues>
            -1.4335143566131592e-01 1.8436962366104126e-01</leafValues></_>
        <_>
          <internalNodes>
            0 -1 611 811637652 481343396 -1208578081 1069133496
            1953321909 -1181385306 -2817368 683947520</internalNodes>
          <leafValues>
            -2.2851336002349854e-01 1.1211918294429779e-01</leafValues></_>
        <_>
          <internalNodes>
            0 -1 1091 -25953008 1343288628 -699493975 -1247480130
            -708185696 -1732477953 -521740760 -458887310</internalNodes>
          <leafValues>
            -1.5927414596080780e-01 1.5774393081665039e-01</leafValues></_>
        <_>
          <internalNodes>
            0 -1 784 1062502196 -1196344075 -1078476833 -1821040902
            -1686662220 -574811226 -1129172259 -1744623552</internalNodes>
          <leafValues>
            -1.6155840456485748e-01 1.5460260212421417e-01</leafValues></_>
        <_>
          <internalNodes>
            0 -1 64 -429743616 -2140887616 647217968 -39671192
            -983716688 -1198130028 -205097568 -444078974</internalNodes>
          <leafValues>
            -1.5991598367691040e-01 1.5619806945323944e-01</leafValues></_>
        <_>
          <internalNodes>
            0 -1 230 -547398573 2088386549 -210927654 -1086710141
            -566275277 -596412633 -18194581 -13407389</internalNodes>
          <leafValues>
            -1.4037394523620605e-01 1.8648734688758850e-01</leafValues></_>
        <_>
          <internalNodes>
            0 -1 867 -588010987 881916796 -1611243585 -1113135506
            -1057675092 -1125044937 686097802 543610406</internalNodes>
          <leafValues>
            -1.9168190658092499e-01 1.3454815745353699e-01</leafValues></_>
        <_>
          <internalNodes>
            0 -1 366 -285964132 1946056672 -958252362 -1115639918
            -230286960 1578392370 -13442392 -1604180310</internalNodes>
          <leafValues>
            -1.7284515500068665e-01 1.4483667910099030e-01</leafValues></_>
        <_>
          <internalNodes>
            0 -1 1029 -1164263952 -1095442520 2129567737 -1107379332
            -1158586435 -1141379591 -1816285700 -1124075364</internalNodes>
          <leafValues>
            -1.4537087082862854e-01 1.7727619409561157e-01</leafValues></_>
        <_>
          <internalNodes>
            0 -1 296 -327629104 2135877551 -1161720006 -168684994
            1154782368 2037460791 898687992 -240934362</internalNodes>
          <leafValues>
            -1.3381545245647430e-01 1.8188127875328064e-01</leafValues></_>
        <_>
          <internalNodes>
            0 -1 571 1523597988 -1741636179 1878272290 -1917547669
            -587905035 985029104 -2815336 680798340</internalNodes>
          <leafValues>
            -2.3533400893211365e-01 1.0555168986320496e-01</leafValues></_>
        <_>
          <internalNodes>
            0 -1 544 -1241335904 -723464864 -1347599 -1209164528
            667848324 1021375861 -1098011662 -507046770</internalNodes>
          <leafValues>
            -1.4178445935249329e-01 1.7428302764892578e-01</leafValues></_>
        <_>
          <internalNodes>
            0 -1 7 -832377437 -1816991917 -269873859 -1107904990
            1421581483 -1195580683 1837051608 1759863968</internalNodes>
          <leafValues>
            -1.6713021695613861e-01 1.5366095304489136e-01</leafValues></_>
        <_>
          <internalNodes>
            0 -1 1203 -157834086 -996102600 465551012 -1195839582
            -969417296 -680071255 -50880376 -252189014</internalNodes>
          <leafValues>
            -1.2994474172592163e-01 1.9210210442543030e-01</leafValues></_>
        <_>
          <internalNodes>
            0 -1 194 -454115264 -1662381337 1190984494 -2071425229
            1440892050 1682986487 -1237955400 -500767866</internalNodes>
          <leafValues>
            -1.9133409857749939e-01 1.3248859345912933e-01</leafValues></_>
        <_>
          <internalNodes>
            0 -1 805 1089515024 -1128470555 -1380045792 -1432180165
            1299597781 -1107748995 2146241968 745802032</internalNodes>
          <leafValues>
            -3.3853521943092346e-01 7.3295116424560547e-02</leafValues></_>
        <_>
          <internalNodes>
            0 -1 180 1480911588 -1342001357 -2042845184 -1524783162
            -36356235 2105670512 -746774464 551888418</internalNodes>
          <leafValues>
            -2.8319635987281799e-01 8.9683726429939270e-02</leafValues></_>
        <_>
          <internalNodes>
            0 -1 654 1320167476 284981058 -21132167 -1112720560
            2042965489 -1231461465 -84530129 -1362811390</internalNodes>
          <leafValues>
            -1.6590802371501923e-01 1.5337751805782318e-01</leafValues></_>
        <_>
          <internalNodes>
            0 -1 933 -2030795632 -1649899604 -1358971848 -1091504014
            974270374 -1728659993 -1152971032 -1565645128</internalNodes>
          <leafValues>
            -1.8965975940227509e-01 1.2989746034145355e-01</leafValues></_>
        <_>
          <internalNodes>
            0 -1 108 -186368490 498643810 1743132244 1837418388
            1760839673 -21606415 2046127432 1081435202</internalNodes>
          <leafValues>
            -2.2270184755325317e-01 1.0927341133356094e-01</leafValues></_>
        <_>
          <internalNodes>
            0 -1 1169 -274535384 1625400818 -2062078608 -240623184
            -1296371808 1014382515 -850515184 -187976528</internalNodes>
          <leafValues>
            -1.6212867200374603e-01 1.5140293538570404e-01</leafValues></_>
        <_>
          <internalNodes>
            0 -1 28 -490295886 -1540165697 948776711 -1416810687
            2089709477 -792182795 -268603701 1078421250</internalNodes>
          <leafValues>
            -1.9857959449291229e-01 1.2586875259876251e-01</leafValues></_>
        <_>
          <internalNodes>
            0 -1 466 -454133248 2075958815 -1409782920 1070868458
            -315195964 -258409127 -201414200 -341685125</internalNodes>
          <leafValues>
            -1.5457628667354584e-01 1.5864458680152893e-01</leafValues></_>
        <_>
          <internalNodes>
            0 -1 850 -91433104 -1259028539 1040140792 -68686950
            787869685 -1696923724 -6820727 -1426374782</internalNodes>
          <leafValues>
            -1.2754355370998383e-01 1.8618105351924896e-01</leafValues></_>
        <_>
          <internalNodes>
            0 -1 265 438746035 1421409972 -546489044 -1074517340
            1970354101 -46826265 -159832 -404400169</internalNodes>
          <leafValues>
            -1.2962950766086578e-01 1.8112929165363312e-01</leafValues></_>
        <_>
          <internalNodes>
            0 -1 252 1680518400 405046888 977339056 -62746808 1475275155
            1285570917 2026537448 -927467648</internalNodes>
          <leafValues>
            -1.7089004814624786e-01 1.3771849870681763e-01</leafValues></_>
        <_>
          <internalNodes>
            0 -1 506 1624542256 1018622006 -1828905832 -1141332513
            1442125493 -33853250 -1453520824 684549378</internalNodes>
          <leafValues>
            -1.9468277692794800e-01 1.2332771718502045e-01</leafValues></_>
        <_>
          <internalNodes>
            0 -1 1113 1994567456 279631216 -1048593 -793825580
            -1695176793 -1602837035 1502999949 -791160410</internalNodes>
          <leafValues>
            -1.4855939149856567e-01 1.5990957617759705e-01</leafValues></_>
        <_>
          <internalNodes>
            0 -1 910 1766108404 -1154424062 -1430480948 803006858
            1576814240 -156901955 -1137896216 551880768</internalNodes>
          <leafValues>
            -3.1278270483016968e-01 7.4303850531578064e-02</leafValues></_>
        <_>
          <internalNodes>
            0 -1 224 -35686925 1924136959 2125709279 -709160396
            515978695 1297383414 -14649376 -44832906</internalNodes>
          <leafValues>
            -1.1698412895202637e-01 2.0901170372962952e-01</leafValues></_>
        <_>
          <internalNodes>
            0 -1 1148 -4748280 -755653258 -1191270888 -234947016
            2012056712 1701904255 -95120744 -261901466</internalNodes>
          <leafValues>
            -1.3113197684288025e-01 1.8457192182540894e-01</leafValues></_>
        <_>
          <internalNodes>
            0 -1 915 -361238476 1521270772 -1147900612 -1444370644
            2006792165 -1126170905 -270778884 -1460189229</internalNodes>
          <leafValues>
            -1.4620035886764526e-01 1.6226404905319214e-01</leafValues></_>
        <_>
          <internalNodes>
            0 -1 829 1011361620 955778978 -1688318152 -1627909156
            851237877 1073164159 1067998320 1031811072</internalNodes>
          <leafValues>
            -4.6741023659706116e-01 5.0571314990520477e-02</leafValues></_>
        <_>
          <internalNodes>
            0 -1 1102 -387995855 1355068208 -549722499 -1247682642
            1810231037 -51808301 -293795512 -385882517</internalNodes>
          <leafValues>
            -1.1612824350595474e-01 2.0454905927181244e-01</leafValues></_>
        <_>
          <internalNodes>
            0 -1 412 -1879920973 -1565883904 -219340456 500149164
            1802386921 -1347747897 -1020911733 -1304001902</internalNodes>
          <leafValues>
            -1.4399541914463043e-01 1.6774407029151917e-01</leafValues></_>
        <_>
          <internalNodes>
            0 -1 100 -221274477 1369108266 -268563081 -34898205
            1288513464 -1699282955 -286144291 -137895181</internalNodes>
          <leafValues>
            -7.7705457806587219e-02 3.0100467801094055e-01</leafValues></_>
        <_>
          <internalNodes>
            0 -1 1115 -1400337888 -1362458804 -809009520 -596474668
            648647636 607975905 -1481351252 -2136060764</internalNodes>
          <leafValues>
            -2.1552699804306030e-01 1.0788799822330475e-01</leafValues></_>
        <_>
          <internalNodes>
            0 -1 29 -66066782 2099557285 142894446 -806621304 882707903
            602174900 -285950456 1080403058</internalNodes>
          <leafValues>
            -2.1420471370220184e-01 1.0939311981201172e-01</leafValues></_>
        <_>
          <internalNodes>
            0 -1 276 1280890672 280018891 1411777181 -1113219290
            904926148 -721638940 -203437239 720651874</internalNodes>
          <leafValues>
            -1.9867600500583649e-01 1.1789541691541672e-01</leafValues></_>
        <_>
          <internalNodes>
            0 -1 357 -1031371772 1033669793 911476460 -1176224462
            2020881376 -1487119766 -345692708 -387576156</internalNodes>
          <leafValues>
            -1.8254618346691132e-01 1.2666477262973785e-01</leafValues></_>
        <_>
          <internalNodes>
            0 -1 157 -291453712 951219159 -2072097670 -1830774206
            1691616468 -261202428 -625851308 1147366961</internalNodes>
          <leafValues>
            -2.3598904907703400e-01 9.6180863678455353e-02</leafValues></_></weakClassifiers></_>
    <!-- stage 5 -->
    <_>
      <maxWeakCount>77</maxWeakCount>
      <stageThreshold>-1.7618112564086914e+00</stageThreshold>
      <weakClassifiers>
        <_>
          <internalNodes>
            0 -1 232 1610053631 -196613 -32773 -12894221 -40206345
            -72064649 -2654213 -10257549</internalNodes>
          <leafValues>
            -6.4810281991958618e-01 -3.3983430266380310e-01</leafValues></_>
        <_>
          <internalNodes>
            0 -1 926 -100919916 -67559465 -1771258977 -135304198
            -6490627 -1082647374 -1090732054 -1433788246</internalNodes>
          <leafValues>
            -2.4740307033061981e-01 1.2335385382175446e-01</leafValues></_>
        <_>
          <internalNodes>
            0 -1 143 -572522505 -131023046 -278855809 -34560078
            -438997008 -42828412 -601412576 -1069301758</internalNodes>
          <leafValues>
            -1.3404786586761475e-01 2.4900212883949280e-01</leafValues></_>
        <_>
          <internalNodes>
            0 -1 228 1883897844 1955642550 1335394188 -3818396 -26117132
            -170496080 -70296086 549954114</internalNodes>
          <leafValues>
            -2.1492968499660492e-01 1.4449529349803925e-01</leafValues></_>
        <_>
          <internalNodes>
            0 -1 651 -1599560208 -1751138500 -1208043523 -3307532
            -1227775301 -17958924 -690693122 -1467482112</internalNodes>
          <leafValues>
            -1.9855214655399323e-01 1.4222209155559540e-01</leafValues></_>
        <_>
          <internalNodes>
            0 -1 126 -923079536 -756356696 -135346800 -671579132
            1253234116 -712747565 -420436752 -421018110</internalNodes>
          <leafValues>
            -1.2211472541093826e-01 2.1362830698490143e-01</leafValues></_>
        <_>
          <internalNodes>
            0 -1 690 1968749564 -614089 536862717 -34005158 -42663939
            -2098435 -22004801 -1417147384</internalNodes>
          <leafValues>
            -1.3942185044288635e-01 2.0019353926181793e-01</leafValues></_>
        <_>
          <internalNodes>
            0 -1 1222 -16777217 217351419 -1074872545 1070246654
            1037535743 -2009628677 -1513122583 -855646977</internalNodes>
          <leafValues>
            -9.9132485687732697e-02 2.8576043248176575e-01</leafValues></_>
        <_>
          <internalNodes>
            0 -1 1123 -85801848 2063971399 -88989064 2014979888
            -56448508 1545917270 -131929398 -234626973</internalNodes>
          <leafValues>
            -1.4288662374019623e-01 1.7607423663139343e-01</leafValues></_>
        <_>
          <internalNodes>
            0 -1 628 -27986640 1422171633 -1592296007 -1174933781
            -33769539 -1126907986 804089384 681918464</internalNodes>
          <leafValues>
            -1.6970857977867126e-01 1.4655625820159912e-01</leafValues></_>
        <_>
          <internalNodes>
            0 -1 14 -398528778 -2058074346 1013995637 -38495184
            214730696 -1128338948 -329849700 -936258560</internalNodes>
          <leafValues>
            -1.9653294980525970e-01 1.2358274310827255e-01</leafValues></_>
        <_>
          <internalNodes>
            0 -1 1118 -1097416996 -1174696964 385518940 -1778614023
            792444893 -805786462 -1933636424 -2030385700</internalNodes>
          <leafValues>
            -1.6415956616401672e-01 1.4935232698917389e-01</leafValues></_>
        <_>
          <internalNodes>
            0 -1 417 -761069920 -861098592 -1230031056 -337430208
            56072616 -1933154303 -495737628 -712289136</internalNodes>
          <leafValues>
            -1.5850964188575745e-01 1.4752240478992462e-01</leafValues></_>
        <_>
          <internalNodes>
            0 -1 175 -8455770 -151846958 1930590719 -1271911118
            1785727472 -388980096 940866700 1073792115</internalNodes>
          <leafValues>
            -2.0569142699241638e-01 1.1340810358524323e-01</leafValues></_>
        <_>
          <internalNodes>
            0 -1 771 -57366796 -776180555 -9438052 -536957210 -19358803
            -1079984779 -1110530612 -1359468064</internalNodes>
          <leafValues>
            -1.7140072584152222e-01 1.3073407113552094e-01</leafValues></_>
        <_>
          <internalNodes>
            0 -1 1199 -219166956 -258458600 2130358832 -1327700092
            -1393175168 -261839338 -829781816 -526915582</internalNodes>
          <leafValues>
            -1.3666734099388123e-01 1.6595369577407837e-01</leafValues></_>
        <_>
          <internalNodes>
            0 -1 598 -1299674448 -541546510 632764080 -167935060
            -2055169408 -1677852741 1590605530 -1379199872</internalNodes>
          <leafValues>
            -1.4893621206283569e-01 1.5065550804138184e-01</leafValues></_>
        <_>
          <internalNodes>
            0 -1 328 -682974302 -635261280 2145988594 -540436368
            -266935586 -154749583 -1360092942 -842022656</internalNodes>
          <leafValues>
            -1.2110244482755661e-01 1.8094417452812195e-01</leafValues></_>
        <_>
          <internalNodes>
            0 -1 695 777525460 -152035716 2141074175 1073626232
            -1195496204 -420257804 1590706140 246421552</internalNodes>
          <leafValues>
            -2.8337511420249939e-01 7.5629025697708130e-02</leafValues></_>
        <_>
          <internalNodes>
            0 -1 1103 -113776905 422765028 -315773003 -374884740
            -218640469 -590623695 -386432940 -536622893</internalNodes>
          <leafValues>
            -1.0508345067501068e-01 2.1112315356731415e-01</leafValues></_>
        <_>
          <internalNodes>
            0 -1 849 -523196172 -34816026 -387140 -1107910918 -153692
            -67849316 -1886011464 -1430518870</internalNodes>
          <leafValues>
            -1.4745850861072540e-01 1.4776717126369476e-01</leafValues></_>
        <_>
          <internalNodes>
            0 -1 953 -218496879 -86071682 -164200642 -1107511842
            -1126396516 -101271647 -51597634 -1430606846</internalNodes>
          <leafValues>
            -1.3115605711936951e-01 1.6443125903606415e-01</leafValues></_>
        <_>
          <internalNodes>
            0 -1 883 -1002435216 -1329810500 1609940588 -4317974
            -409092621 -202358787 -952323 -1232598984</internalNodes>
          <leafValues>
            -1.7633917927742004e-01 1.1738479137420654e-01</leafValues></_>
        <_>
          <internalNodes>
            0 -1 345 -85792344 -1914001118 1673031136 -1123615102
            619032449 2110853 -716070432 -796395830</internalNodes>
          <leafValues>
            -1.4281272888183594e-01 1.5255519747734070e-01</leafValues></_>
        <_>
          <internalNodes>
            0 -1 964 -360714983 -211749532 641611542 -64977740
            1978877420 -545360387 -1299194994 -1394217277</internalNodes>
          <leafValues>
            -1.2510804831981659e-01 1.6347029805183411e-01</leafValues></_>
        <_>
          <internalNodes>
            0 -1 801 -392680156 820813703 -1074090284 -1091129462
            -1963184136 -1213188172 -323737264 549463300</internalNodes>
          <leafValues>
            -2.9383432865142822e-01 7.0142753422260284e-02</leafValues></_>
        <_>
          <internalNodes>
            0 -1 479 -243078494 -609240926 977477042 -540041496
            -2106778654 -1684209724 -1560839514 -151275382</internalNodes>
          <leafValues>
            -1.0570845752954483e-01 1.9823798537254333e-01</leafValues></_>
        <_>
          <internalNodes>
            0 -1 230 1833334519 -8749065 2074901949 -541970598
            -708878282 2088730415 2103991154 -13468333</internalNodes>
          <leafValues>
            -1.5342935919761658e-01 1.3690432906150818e-01</leafValues></_>
        <_>
          <internalNodes>
            0 -1 998 -333023495 493207349 -1906538792 435158782
            506662899 -1359372808 -1863473987 6415444</internalNodes>
          <leafValues>
            -1.9038107991218567e-01 1.0715382546186447e-01</leafValues></_>
        <_>
          <internalNodes>
            0 -1 1152 -159996928 1881338464 -1469173070 -1327363870
            1903407936 -1451920892 -411278934 -177805782</internalNodes>
          <leafValues>
            -1.5332171320915222e-01 1.3474114239215851e-01</leafValues></_>
        <_>
          <internalNodes>
            0 -1 1020 -1869811727 -240239528 -5174380 -107689996
            -1481277515 -1080281112 -2089605124 -1363475308</internalNodes>
          <leafValues>
            -1.3647933304309845e-01 1.5107178688049316e-01</leafValues></_>
        <_>
          <internalNodes>
            0 -1 1154 -695563648 1496580500 -1829892900 -1313180630
            15732800 -1273465460 -1276996470 -238028626</internalNodes>
          <leafValues>
            -1.2361124157905579e-01 1.6291821002960205e-01</leafValues></_>
        <_>
          <internalNodes>
            0 -1 1094 -119019724 855659573 -1347797027 -570642756
            1258119348 -85404443 -118133864 -2003578176</internalNodes>
          <leafValues>
            -1.5486928820610046e-01 1.3093385100364685e-01</leafValues></_>
        <_>
          <internalNodes>
            0 -1 458 -963251968 1410658750 926690815 2108531787
            -176575120 -195815684 -1621270979 545896194</internalNodes>
          <leafValues>
            -1.7087937891483307e-01 1.1696523427963257e-01</leafValues></_>
        <_>
          <internalNodes>
            0 -1 116 -252779360 948226976 1684931232 -1191397846
            812654068 -1192866508 -156233840 -1030503424</internalNodes>
          <leafValues>
            -1.6835393011569977e-01 1.2117113173007965e-01</leafValues></_>
        <_>
          <internalNodes>
            0 -1 718 -327899116 -721668947 -222299844 -1260646450
            2067346928 -188876289 -296337432 -1428345964</internalNodes>
          <leafValues>
            -1.6823373734951019e-01 1.2092170119285583e-01</leafValues></_>
        <_>
          <internalNodes>
            0 -1 1175 -1669690914 -1494550660 -1367511812 887795142
            250503621 -1426642954 750601948 -1997616748</internalNodes>
          <leafValues>
            -1.8245859444141388e-01 1.0960722714662552e-01</leafValues></_>
        <_>
          <internalNodes>
            0 -1 133 -221854282 -87781854 -1040536069 -639340760
            -975993644 -1493895517 -67899734 -2899237</internalNodes>
          <leafValues>
            -8.8621512055397034e-02 2.2994047403335571e-01</leafValues></_>
        <_>
          <internalNodes>
            0 -1 762 -1540356256 -1315152427 2147365112 -1075925026
            -134991152 -169035527 -136340848 -1598153720</internalNodes>
          <leafValues>
            -1.9400621950626373e-01 1.0444670915603638e-01</leafValues></_>
        <_>
          <internalNodes>
            0 -1 531 585897008 -671421516 -799078532 896141680
            -319116124 -2065538458 -479454255 712140594</internalNodes>
          <leafValues>
            -2.2445732355117798e-01 9.1468051075935364e-02</leafValues></_>
        <_>
          <internalNodes>
            0 -1 1191 -58817006 881341530 -1494061384 -1875492686
            -293608512 -1191161104 -1866076514 -390615438</internalNodes>
          <leafValues>
            -1.3137105107307434e-01 1.5804365277290344e-01</leafValues></_>
        <_>
          <internalNodes>
            0 -1 204 -404071264 1069697612 1962634554 558139446
            1999640440 439623218 -67932759 1077986402</internalNodes>
          <leafValues>
            -2.3879690468311310e-01 8.4715500473976135e-02</leafValues></_>
        <_>
          <internalNodes>
            0 -1 441 -864890540 434174075 1047015166 829618594
            -1672979979 -1197706283 -319537552 12846656</internalNodes>
          <leafValues>
            -2.6798650622367859e-01 7.5323708355426788e-02</leafValues></_>
        <_>
          <internalNodes>
            0 -1 17 -269549577 -1225740818 -1084061861 -1241710336
            609160185 -1091208449 1877369548 1693672775</internalNodes>
          <leafValues>
            -1.3453017175197601e-01 1.5067657828330994e-01</leafValues></_>
        <_>
          <internalNodes>
            0 -1 181 -600648036 -235690292 -290424650 -802881606
            -217016440 807487316 -55335688 -206313753</internalNodes>
          <leafValues>
            -1.0709727555513382e-01 1.9038566946983337e-01</leafValues></_>
        <_>
          <internalNodes>
            0 -1 1062 -2066699488 -155808835 -1927649864 -141843240
            -1083718168 414578573 -1317730591 -2063269712</internalNodes>
          <leafValues>
            -1.8328082561492920e-01 1.1102437973022461e-01</leafValues></_>
        <_>
          <internalNodes>
            0 -1 487 170919728 -1735083847 -1114007154 212862644
            74731060 527769597 1794907680 140795968</internalNodes>
          <leafValues>
            -3.5453790426254272e-01 5.4811369627714157e-02</leafValues></_>
        <_>
          <internalNodes>
            0 -1 267 -760832346 -593301784 -362400744 -1109509640
            -1091046744 -1659618068 1942044340 -571484418</internalNodes>
          <leafValues>
            -1.1365746706724167e-01 1.8229962885379791e-01</leafValues></_>
        <_>
          <internalNodes>
            0 -1 1217 -672465248 417656128 -843176199 -1851562064
            -374886528 113375177 -369126196 -186911577</internalNodes>
          <leafValues>
            -1.1318948864936829e-01 1.8284027278423309e-01</leafValues></_>
        <_>
          <internalNodes>
            0 -1 977 310908020 -889978506 -1845678156 -1653466954
            -4196959 750551032 -1091227760 -1528298492</internalNodes>
          <leafValues>
            -2.2539439797401428e-01 8.8345579802989960e-02</leafValues></_>
        <_>
          <internalNodes>
            0 -1 493 1959212842 269940019 -17258757 -1937768449
            1289088901 -81674251 -13783520 -1979588542</internalNodes>
          <leafValues>
            -1.5229471027851105e-01 1.3291572034358978e-01</leafValues></_>
        <_>
          <internalNodes>
            0 -1 124 1380821682 -1328775274 -288618848 -1370968218
            1675960308 1959057116 -479955798 1665526698</internalNodes>
          <leafValues>
            -1.9595445692539215e-01 1.0271888226270676e-01</leafValues></_>
        <_>
          <internalNodes>
            0 -1 633 -488335156 -606205941 2093756330 1928093226
            -56586250 -134955626 -1078804596 -1813903546</internalNodes>
          <leafValues>
            -1.5091161429882050e-01 1.3007588684558868e-01</leafValues></_>
        <_>
          <internalNodes>
            0 -1 1069 -142976948 -2214804 550952114 362445986 -701591424
            -461878927 -128554854 -1610441182</internalNodes>
          <leafValues>
            -1.4746655523777008e-01 1.3514098525047302e-01</leafValues></_>
        <_>
          <internalNodes>
            0 -1 389 1339724628 -709316777 -50803373 1474833979
            -530809968 -597264395 -398377570 2049000210</internalNodes>
          <leafValues>
            -1.4912214875221252e-01 1.3414020836353302e-01</leafValues></_>
        <_>
          <internalNodes>
            0 -1 870 -663572348 -1137431552 -1344344724 -978388170
            -125531348 -42654345 1827822752 -1740374506</internalNodes>
          <leafValues>
            -1.6434095799922943e-01 1.2223470956087112e-01</leafValues></_>
        <_>
          <internalNodes>
            0 -1 449 1458959172 77103066 317505092 753463029 1325803452
            2117088156 -1570411759 328455</internalNodes>
          <leafValues>
            -2.3154281079769135e-01 8.5181400179862976e-02</leafValues></_>
        <_>
          <internalNodes>
            0 -1 1131 -538003472 2008561535 1583809468 -172938714
            -13609028 -1195904652 -206528600 -6312710</internalNodes>
          <leafValues>
            -9.6293576061725616e-02 2.1352584660053253e-01</leafValues></_>
        <_>
          <internalNodes>
            0 -1 192 -47004155 1524555573 -1636107265 -1218255262
            1682446132 892706663 -554479908 -438047117</internalNodes>
          <leafValues>
            -1.1726056784391403e-01 1.6812048852443695e-01</leafValues></_>
        <_>
          <internalNodes>
            0 -1 103 -851776079 815326938 -8952839 -1084251951
            1020110016 -338198923 -20561990 -361280795</internalNodes>
          <leafValues>
            -1.0281274467706680e-01 1.8995298445224762e-01</leafValues></_>
        <_>
          <internalNodes>
            0 -1 700 77597328 173016609 -67740322 -1845743184 1490058472
            2145206268 1769481268 2560</internalNodes>
          <leafValues>
            -4.3129840493202209e-01 4.5890636742115021e-02</leafValues></_>
        <_>
          <internalNodes>
            0 -1 74 -1060969214 708060392 24373120 -1375516086
            1158692992 1727027250 2086499328 1083274022</internalNodes>
          <leafValues>
            -3.2122159004211426e-01 6.1992205679416656e-02</leafValues></_>
        <_>
          <internalNodes>
            0 -1 1225 685759730 103962108 -178475814 -2145241484
            89104270 1821354403 309550772 15909108</internalNodes>
          <leafValues>
            -2.4612510204315186e-01 7.9115636646747589e-02</leafValues></_>
        <_>
          <internalNodes>
            0 -1 761 1791470240 -1842022286 -969524252 -2144686504
            1684354517 1559881693 -914854936 1618036226</internalNodes>
          <leafValues>
            -2.2513341903686523e-01 8.6569875478744507e-02</leafValues></_>
        <_>
          <internalNodes>
            0 -1 923 682102256 -1671126860 -1094961288 523005576
            323284788 -160564228 801247368 889457800</internalNodes>
          <leafValues>
            -3.5837233066558838e-01 5.7408109307289124e-02</leafValues></_>
        <_>
          <internalNodes>
            0 -1 1056 -435507216 -155421267 -1075664139 -1078092700
            -1141428559 -305594516 -1208482391 -354432788</internalNodes>
          <leafValues>
            -1.1689996719360352e-01 1.7370155453681946e-01</leafValues></_>
        <_>
          <internalNodes>
            0 -1 24 -966350017 -1161775628 -136728713 -273896350
            490081070 -1072578072 1045896970 1222986819</internalNodes>
          <leafValues>
            -1.4504863321781158e-01 1.3746434450149536e-01</leafValues></_>
        <_>
          <internalNodes>
            0 -1 376 -186995204 2024694655 -18001218 -1745756737
            1589307327 -1191191114 -268504840 -1059598429</internalNodes>
          <leafValues>
            -1.0969032347202301e-01 1.8477751314640045e-01</leafValues></_>
        <_>
          <internalNodes>
            0 -1 810 1717091884 888729613 1706495551 -1363759598
            1101060017 -554640131 -2871884 -1444927966</internalNodes>
          <leafValues>
            -1.9770281016826630e-01 9.7456268966197968e-02</leafValues></_>
        <_>
          <internalNodes>
            0 -1 500 -224910196 -1679257666 -67687529 1471981038
            920171406 -170536377 -1099440472 -377863968</internalNodes>
          <leafValues>
            -1.4510211348533630e-01 1.3382139801979065e-01</leafValues></_>
        <_>
          <internalNodes>
            0 -1 773 874982080 452552805 783830758 -1920485198 594622436
            977231860 -1135952172 10577968</internalNodes>
          <leafValues>
            -2.7572965621948242e-01 7.2118595242500305e-02</leafValues></_>
        <_>
          <internalNodes>
            0 -1 395 -553091596 -546144394 -1964262 -1196382406 -315784
            -72328142 -751494384 -671056125</internalNodes>
          <leafValues>
            -1.7219612002372742e-01 1.1543346941471100e-01</leafValues></_>
        <_>
          <internalNodes>
            0 -1 348 -1142504278 -191738200 -151232582 -1679312638
            975609745 -36940314 -168099954 -203712850</internalNodes>
          <leafValues>
            -9.8500214517116547e-02 2.0019540190696716e-01</leafValues></_>
        <_>
          <internalNodes>
            0 -1 262 -123084024 -578048850 790537074 -780819144
            1964356028 -1415200852 -154671698 -671615804</internalNodes>
          <leafValues>
            -1.0963592678308487e-01 2.0255638659000397e-01</leafValues></_>
        <_>
          <internalNodes>
            0 -1 671 67681316 -1891746190 2145364804 979953586 938619605
            -1234143621 1034946528 337657892</internalNodes>
          <leafValues>
            -2.9678305983543396e-01 6.6610142588615417e-02</leafValues></_>
        <_>
          <internalNodes>
            0 -1 582 -441580296 2029661745 1725792189 -90038546
            -622972521 1983145964 1964752888 -729130950</internalNodes>
          <leafValues>
            -1.4669381082057953e-01 1.3688379526138306e-01</leafValues></_>
        <_>
          <internalNodes>
            0 -1 48 -925455194 573483903 -41605344 632748962 1429163364
            1754328452 1878265092 282536450</internalNodes>
          <leafValues>
            -2.5189206004142761e-01 7.7681854367256165e-02</leafValues></_></weakClassifiers></_>
    <!-- stage 6 -->
    <_>
      <maxWeakCount>82</maxWeakCount>
      <stageThreshold>-1.6980649232864380e+00</stageThreshold>
      <weakClassifiers>
        <_>
          <internalNodes>
            0 -1 903 1040152053 754972669 -1627439105 251656189 -1
            -1342177281 -1073742083 -1929540404</internalNodes>
          <leafValues>
            -7.0981955528259277e-01 -3.5897436738014221e-01</leafValues></_>
        <_>
          <internalNodes>
            0 -1 832 1060912893 2113372029 1039089629 1576885758
            -1130497 -68174337 2003779583 1039932364</internalNodes>
          <leafValues>
            -3.9625552296638489e-01 6.4528852701187134e-02</leafValues></_>
        <_>
          <internalNodes>
            0 -1 775 534282237 -1 -513 -280577 -196615 -65537 -73731
            -1075040260</internalNodes>
          <leafValues>
            -1.5888598561286926e-01 2.6924389600753784e-01</leafValues></_>
        <_>
          <internalNodes>
            0 -1 229 2147450879 -67142689 -67403809 -16449 -67731661
            -11043465 -8814729 -8913037</internalNodes>
          <leafValues>
            -1.4229118824005127e-01 2.7502465248107910e-01</leafValues></_>
        <_>
          <internalNodes>
            0 -1 699 842547185 -217089 -1051393 -1073957411 -1143149825
            -394323 -4260865 -1902375552</internalNodes>
          <leafValues>
            -1.1253444850444794e-01 2.5208237767219543e-01</leafValues></_>
        <_>
          <internalNodes>
            0 -1 1092 -2622083 -50463392 -302066819 -1463765251
            -285487624 2059141076 -186655620 12643356</internalNodes>
          <leafValues>
            -2.5350213050842285e-01 1.2541200220584869e-01</leafValues></_>
        <_>
          <internalNodes>
            0 -1 866 -23077547 880598095 -37749873 -1803243865 -19579636
            -34152516 -185668050 -1596654741</internalNodes>
          <leafValues>
            -1.5805187821388245e-01 1.6513262689113617e-01</leafValues></_>
        <_>
          <internalNodes>
            0 -1 694 2134392313 2080129023 -1076107403 -77848835
            -9666595 -822839489 1950253052 2142247932</internalNodes>
          <leafValues>
            -2.1417599916458130e-01 1.1518844217061996e-01</leafValues></_>
        <_>
          <internalNodes>
            0 -1 1224 -1077936161 577043364 -1925386502 81112818
            803995615 180583930 939472583 -989856259</internalNodes>
          <leafValues>
            -1.3204523921012878e-01 1.7450582981109619e-01</leafValues></_>
        <_>
          <internalNodes>
            0 -1 401 -282918921 -1059350 -67108937 -133232 -1963481137
            -1612354 -819463177 -17873583</internalNodes>
          <leafValues>
            -9.1497294604778290e-02 2.3668000102043152e-01</leafValues></_>
        <_>
          <internalNodes>
            0 -1 631 963452236 1023344092 1997815764 -587268356
            -576559271 -721616980 -545727116 -1094698784</internalNodes>
          <leafValues>
            -2.2974450886249542e-01 9.1395348310470581e-02</leafValues></_>
        <_>
          <internalNodes>
            0 -1 15 -623710273 -80549933 2007159769 -143597612 276597530
            -21473793 -269196304 -33536768</internalNodes>
          <leafValues>
            -1.8454727530479431e-01 1.1158607900142670e-01</leafValues></_>
        <_>
          <internalNodes>
            0 -1 556 881865652 282459547 -1350877331 -1117925843
            1406500597 -188957201 -273401611 753410688</internalNodes>
          <leafValues>
            -1.6156852245330811e-01 1.2287537753582001e-01</leafValues></_>
        <_>
          <internalNodes>
            0 -1 134 -35129409 2096125650 -1495118025 1576193238
            1140169954 -289016378 -617105835 -714608058</internalNodes>
          <leafValues>
            -8.9946918189525604e-02 2.1957138180732727e-01</leafValues></_>
        <_>
          <internalNodes>
            0 -1 673 3941392 873732964 1073065852 687775736 649148789
            739556031 -17481967 211813888</internalNodes>
          <leafValues>
            -3.7319353222846985e-01 5.1043145358562469e-02</leafValues></_>
        <_>
          <internalNodes>
            0 -1 202 -278200660 2096308073 1049497130 710551346
            389833521 1249013589 1521906768 1080051490</internalNodes>
          <leafValues>
            -2.5234946608543396e-01 7.2501458227634430e-02</leafValues></_>
        <_>
          <internalNodes>
            0 -1 719 1244424516 1016889079 -1361056226 -1694593034
            -706686819 -151094019 -1959706768 1049111216</internalNodes>
          <leafValues>
            -2.2237944602966309e-01 8.7116226553916931e-02</leafValues></_>
        <_>
          <internalNodes>
            0 -1 741 2145856805 473226242 -152109514 -1090589588
            -1114558476 -252597027 611987316 681602950</internalNodes>
          <leafValues>
            -1.9753976166248322e-01 9.2930488288402557e-02</leafValues></_>
        <_>
          <internalNodes>
            0 -1 820 2003096948 -1265316100 -1511264520 -1246372212
            1727887345 -33899009 -1078382659 -1409536992</internalNodes>
          <leafValues>
            -1.3928250968456268e-01 1.2895028293132782e-01</leafValues></_>
        <_>
          <internalNodes>
            0 -1 533 1562912872 429878910 985292793 -1342829734
            -1075045308 930119670 2011447120 979390208</internalNodes>
          <leafValues>
            -2.8822273015975952e-01 5.9903740882873535e-02</leafValues></_>
        <_>
          <internalNodes>
            0 -1 1150 -71316086 1912418219 -2106421246 551874212
            1450566662 1080344324 -186134886 -438043986</internalNodes>
          <leafValues>
            -1.1688029766082764e-01 1.5381072461605072e-01</leafValues></_>
        <_>
          <internalNodes>
            0 -1 753 3185620 909935485 -4354328 -889274369 865939455
            -1409681940 -50811151 -1461705116</internalNodes>
          <leafValues>
            -1.7076824605464935e-01 1.0887759178876877e-01</leafValues></_>
        <_>
          <internalNodes>
            0 -1 947 -1113633603 903700345 -1368400862 498986717
            -1088553803 -1093695515 -1112064304 -666502068</internalNodes>
          <leafValues>
            -1.2917995452880859e-01 1.3933573663234711e-01</leafValues></_>
        <_>
          <internalNodes>
            0 -1 835 -155970315 -1779390883 1031683691 2147310777
            -84867093 -18514210 -1104791730 -1433917146</internalNodes>
          <leafValues>
            -1.1767591536045074e-01 1.4230215549468994e-01</leafValues></_>
        <_>
          <internalNodes>
            0 -1 62 648192640 620553147 -1058227962 -1536627728
            1093930517 1927704453 1986463072 1717916439</internalNodes>
          <leafValues>
            -3.1753724813461304e-01 5.3289715200662613e-02</leafValues></_>
        <_>
          <internalNodes>
            0 -1 635 -196340248 2100959085 1830202894 1731666330
            -415437298 1906274167 1609884638 402661518</internalNodes>
          <leafValues>
            -1.7979918420314789e-01 9.1641515493392944e-02</leafValues></_>
        <_>
          <internalNodes>
            0 -1 1212 -89538904 548133038 -1342476720 -534517824
            312131466 203881453 -687167936 1089459391</internalNodes>
          <leafValues>
            -1.4595800638198853e-01 1.1569935083389282e-01</leafValues></_>
        <_>
          <internalNodes>
            0 -1 505 71052604 779882495 -229700967 275561998 -1202430192
            1560099540 -257967984 546319424</internalNodes>
          <leafValues>
            -3.1369942426681519e-01 5.4442889988422394e-02</leafValues></_>
        <_>
          <internalNodes>
            0 -1 44 -1934438654 992656992 888306746 -608869215 911494576
            -558521411 -1915393612 1693795653</internalNodes>
          <leafValues>
            -1.8934915959835052e-01 8.6578533053398132e-02</leafValues></_>
        <_>
          <internalNodes>
            0 -1 1024 -1413975132 807599992 -1428734190 -134823796
            1767086075 -519176252 -408981408 288101384</internalNodes>
          <leafValues>
            -2.2060565650463104e-01 7.3806017637252808e-02</leafValues></_>
        <_>
          <internalNodes>
            0 -1 181 -621749016 -1846288755 1722854048 1379549102
            1146225158 1835535215 -122505308 1681077827</internalNodes>
          <leafValues>
            -1.6429859399795532e-01 1.0073433816432953e-01</leafValues></_>
        <_>
          <internalNodes>
            0 -1 47 -1058626648 13282044 -400773198 -1904689292
            1349915908 1952804210 -122337213 215305283</internalNodes>
          <leafValues>
            -2.5403067469596863e-01 6.4654044806957245e-02</leafValues></_>
        <_>
          <internalNodes>
            0 -1 924 784875056 113274492 248458932 206966612 103036313
            1003109622 253496368 7622736</internalNodes>
          <leafValues>
            -4.1157937049865723e-01 3.9826266467571259e-02</leafValues></_>
        <_>
          <internalNodes>
            0 -1 672 1954428756 884381632 -475907090 754728916
            -215714124 -1527349263 -1074520508 550887303</internalNodes>
          <leafValues>
            -1.9149345159530640e-01 8.4128834307193756e-02</leafValues></_>
        <_>
          <internalNodes>
            0 -1 188 -588870106 445820533 1625469194 37039211 1710676100
            -1258932315 -141148383 775185314</internalNodes>
          <leafValues>
            -1.9064147770404816e-01 8.6056709289550781e-02</leafValues></_>
        <_>
          <internalNodes>
            0 -1 601 1828689028 811350528 -1343059031 -1404115293
            1014322557 -1800195416 1884783650 547878692</internalNodes>
          <leafValues>
            -2.0892025530338287e-01 7.8884191811084747e-02</leafValues></_>
        <_>
          <internalNodes>
            0 -1 1190 1746737216 856695173 -1096935492 209773072
            -1117172120 -285819888 1836726764 807515662</internalNodes>
          <leafValues>
            -1.8958576023578644e-01 8.5807435214519501e-02</leafValues></_>
        <_>
          <internalNodes>
            0 -1 764 279189840 620280269 526232164 -1664440842
            1505701333 -168534401 -269715580 549989632</internalNodes>
          <leafValues>
            -2.5218418240547180e-01 6.5633490681648254e-02</leafValues></_>
        <_>
          <internalNodes>
            0 -1 894 1827061536 4260012 -1627397072 149611764 1852152496
            1038934327 1266036005 15753585</internalNodes>
          <leafValues>
            -2.8164827823638916e-01 5.8261197060346603e-02</leafValues></_>
        <_>
          <internalNodes>
            0 -1 227 183791074 -817922329 -422615312 -842199321
            2141536802 -35719183 2138167227 1883587586</internalNodes>
          <leafValues>
            -1.6761171817779541e-01 9.8754659295082092e-02</leafValues></_>
        <_>
          <internalNodes>
            0 -1 383 -830850828 1071079149 -1275961776 519714738
            -436306711 1826577916 2105042600 7362472</internalNodes>
          <leafValues>
            -2.2325791418552399e-01 7.2372384369373322e-02</leafValues></_>
        <_>
          <internalNodes>
            0 -1 1068 -1713381767 -1380999444 -1494410762 -1384137227
            -1342708263 250477994 243210992 -975217443</internalNodes>
          <leafValues>
            -1.2215300649404526e-01 1.3310828804969788e-01</leafValues></_>
        <_>
          <internalNodes>
            0 -1 688 1525976957 -571449889 -740589923 -1024128801
            -44843305 -1110902789 -1075496577 -1074053633</internalNodes>
          <leafValues>
            -8.0105111002922058e-02 2.1088273823261261e-01</leafValues></_>
        <_>
          <internalNodes>
            0 -1 369 -134980376 1509940862 -1409366350 1915365478
            -1072271164 1550327670 -541939632 33689226</internalNodes>
          <leafValues>
            -1.8188992142677307e-01 9.2888869345188141e-02</leafValues></_>
        <_>
          <internalNodes>
            0 -1 1142 -605583104 1911774009 251005600 -1202735446
            -111522998 1279226291 -1238896016 1344854722</internalNodes>
          <leafValues>
            -1.6327382624149323e-01 1.0269433259963989e-01</leafValues></_>
        <_>
          <internalNodes>
            0 -1 325 14965872 -2008388622 1816427570 115937666
            -684564623 1846675255 1269830259 2110497</internalNodes>
          <leafValues>
            -2.9828089475631714e-01 5.5331181734800339e-02</leafValues></_>
        <_>
          <internalNodes>
            0 -1 669 540058116 211564519 -1346916543 -1667060591
            1628725057 913574903 2095522789 539237890</internalNodes>
          <leafValues>
            -2.6394951343536377e-01 6.1949077993631363e-02</leafValues></_>
        <_>
          <internalNodes>
            0 -1 218 2060822620 1685516279 -304755933 -1481801001
            1431366618 658445582 1066146735 829895142</internalNodes>
          <leafValues>
            -1.4313976466655731e-01 1.1492145061492920e-01</leafValues></_>
        <_>
          <internalNodes>
            0 -1 5 121830399 1468969634 342806389 -1788751344 -876740937
            -1395329581 1095567333 -442678188</internalNodes>
          <leafValues>
            -1.1536043882369995e-01 1.4537388086318970e-01</leafValues></_>
        <_>
          <internalNodes>
            0 -1 997 -1615272088 -1241646995 -402920652 -579511900
            -270082452 1326839057 -1482041360 -681881184</internalNodes>
          <leafValues>
            -1.2770977616310120e-01 1.3032735884189606e-01</leafValues></_>
        <_>
          <internalNodes>
            0 -1 349 943389411 -1669464853 -1175276704 -162944736
